<?xml version="1.0" encoding="UTF-8"?>
<PMML xmlns="http://www.dmg.org/PMML-4_4" version="4.4">
    <Header copyright="Copyright (c) 2018 Software AG" description="Default Description">
        <Application name="Nyoka" version="4.3.0"/>
        <Timestamp>2020-12-17 22:39:25.865746</Timestamp>
    </Header>
    <DataDictionary numberOfFields="2">
        <DataField name="message" optype="categorical" dataType="string"/>
        <DataField name="spam_ham" optype="categorical" dataType="string">
            <Value value="ham"/>
            <Value value="spam"/>
        </DataField>
    </DataDictionary>
    <TransformationDictionary>
        <DerivedField name="lowercase(message)" optype="categorical" dataType="string">
            <Apply function="lowercase">
                <FieldRef field="message"/>
            </Apply>
        </DerivedField>
        <DerivedField name="tfidf@[message](!)" optype="continuous" dataType="double">
            <Apply function="*">
                <Constant>2.7823823074154581</Constant>
                <TextIndex textField="lowercase(message)">
                    <Extension value="text"/>
                    <Constant>!</Constant>
                </TextIndex>
            </Apply>
        </DerivedField>
        <DerivedField name="tfidf@[message](#)" optype="continuous" dataType="double">
            <Apply function="*">
                <Constant>4.2434002147312846</Constant>
                <TextIndex textField="lowercase(message)">
                    <Extension value="."/>
                    <Constant>#</Constant>
                </TextIndex>
            </Apply>
        </DerivedField>
        <DerivedField name="tfidf@[message](&amp;)" optype="continuous" dataType="double">
            <Apply function="*">
                <Constant>3.4649193088633878</Constant>
                <TextIndex textField="lowercase(message)">
                    <Extension value="minute"/>
                    <Constant>&amp;</Constant>
                </TextIndex>
            </Apply>
        </DerivedField>
        <DerivedField name="tfidf@[message](')" optype="continuous" dataType="double">
            <Apply function="*">
                <Constant>5.8760949893296530</Constant>
                <TextIndex textField="lowercase(message)">
                    <Extension value=".."/>
                    <Constant>'</Constant>
                </TextIndex>
            </Apply>
        </DerivedField>
        <DerivedField name="tfidf@[message]('')" optype="continuous" dataType="double">
            <Apply function="*">
                <Constant>5.0330076614787931</Constant>
                <TextIndex textField="lowercase(message)">
                    <Extension value="use"/>
                    <Constant>''</Constant>
                </TextIndex>
            </Apply>
        </DerivedField>
        <DerivedField name="tfidf@[message]('d)" optype="continuous" dataType="double">
            <Apply function="*">
                <Constant>6.2669612980166649</Constant>
                <TextIndex textField="lowercase(message)">
                    <Extension value="dear"/>
                    <Constant>'d</Constant>
                </TextIndex>
            </Apply>
        </DerivedField>
        <DerivedField name="tfidf@[message]('ll)" optype="continuous" dataType="double">
            <Apply function="*">
                <Constant>4.2434002147312846</Constant>
                <TextIndex textField="lowercase(message)">
                    <Extension value="!"/>
                    <Constant>'ll</Constant>
                </TextIndex>
            </Apply>
        </DerivedField>
        <DerivedField name="tfidf@[message]('m)" optype="continuous" dataType="double">
            <Apply function="*">
                <Constant>3.7291322467743218</Constant>
                <TextIndex textField="lowercase(message)">
                    <Extension value="customer"/>
                    <Constant>'m</Constant>
                </TextIndex>
            </Apply>
        </DerivedField>
        <DerivedField name="tfidf@[message]('re)" optype="continuous" dataType="double">
            <Apply function="*">
                <Constant>5.0586500920921305</Constant>
                <TextIndex textField="lowercase(message)">
                    <Extension value="win"/>
                    <Constant>'re</Constant>
                </TextIndex>
            </Apply>
        </DerivedField>
        <DerivedField name="tfidf@[message]('s)" optype="continuous" dataType="double">
            <Apply function="*">
                <Constant>3.5388243383477169</Constant>
                <TextIndex textField="lowercase(message)">
                    <Extension value="prize"/>
                    <Constant>'s</Constant>
                </TextIndex>
            </Apply>
        </DerivedField>
        <DerivedField name="tfidf@[message]('ve)" optype="continuous" dataType="double">
            <Apply function="*">
                <Constant>5.1119960727974227</Constant>
                <TextIndex textField="lowercase(message)">
                    <Extension value="collect"/>
                    <Constant>'ve</Constant>
                </TextIndex>
            </Apply>
        </DerivedField>
        <DerivedField name="tfidf@[message](()" optype="continuous" dataType="double">
            <Apply function="*">
                <Constant>4.8381073224779776</Constant>
                <TextIndex textField="lowercase(message)">
                    <Extension value="easy"/>
                    <Constant>(</Constant>
                </TextIndex>
            </Apply>
        </DerivedField>
        <DerivedField name="tfidf@[message]())" optype="continuous" dataType="double">
            <Apply function="*">
                <Constant>3.5943130239653702</Constant>
                <TextIndex textField="lowercase(message)">
                    <Extension value="call"/>
                    <Constant>)</Constant>
                </TextIndex>
            </Apply>
        </DerivedField>
        <DerivedField name="tfidf@[message](*)" optype="continuous" dataType="double">
            <Apply function="*">
                <Constant>4.6839566426507195</Constant>
                <TextIndex textField="lowercase(message)">
                    <Extension value="love"/>
                    <Constant>*</Constant>
                </TextIndex>
            </Apply>
        </DerivedField>
        <DerivedField name="tfidf@[message](,)" optype="continuous" dataType="double">
            <Apply function="*">
                <Constant>2.4700076223733056</Constant>
                <TextIndex textField="lowercase(message)">
                    <Extension value="girl"/>
                    <Constant>,</Constant>
                </TextIndex>
            </Apply>
        </DerivedField>
        <DerivedField name="tfidf@[message](-)" optype="continuous" dataType="double">
            <Apply function="*">
                <Constant>4.3148591787134301</Constant>
                <TextIndex textField="lowercase(message)">
                    <Extension value="office"/>
                    <Constant>-</Constant>
                </TextIndex>
            </Apply>
        </DerivedField>
        <DerivedField name="tfidf@[message](.)" optype="continuous" dataType="double">
            <Apply function="*">
                <Constant>1.7618516875521797</Constant>
                <TextIndex textField="lowercase(message)">
                    <Extension value="may"/>
                    <Constant>.</Constant>
                </TextIndex>
            </Apply>
        </DerivedField>
        <DerivedField name="tfidf@[message](..)" optype="continuous" dataType="double">
            <Apply function="*">
                <Constant>3.5219225275451138</Constant>
                <TextIndex textField="lowercase(message)">
                    <Extension value="..."/>
                    <Constant>..</Constant>
                </TextIndex>
            </Apply>
        </DerivedField>
        <DerivedField name="tfidf@[message](...)" optype="continuous" dataType="double">
            <Apply function="*">
                <Constant>3.0446132474377148</Constant>
                <TextIndex textField="lowercase(message)">
                    <Extension value="'ve"/>
                    <Constant>...</Constant>
                </TextIndex>
            </Apply>
        </DerivedField>
        <DerivedField name="tfidf@[message](....)" optype="continuous" dataType="double">
            <Apply function="*">
                <Constant>5.7915376013015898</Constant>
                <TextIndex textField="lowercase(message)">
                    <Extension value="right"/>
                    <Constant>....</Constant>
                </TextIndex>
            </Apply>
        </DerivedField>
        <DerivedField name="tfidf@[message](1)" optype="continuous" dataType="double">
            <Apply function="*">
                <Constant>5.3249180700400949</Constant>
                <TextIndex textField="lowercase(message)">
                    <Extension value="word"/>
                    <Constant>1</Constant>
                </TextIndex>
            </Apply>
        </DerivedField>
        <DerivedField name="tfidf@[message](150p)" optype="continuous" dataType="double">
            <Apply function="*">
                <Constant>6.2669612980166649</Constant>
                <TextIndex textField="lowercase(message)">
                    <Extension value="thank"/>
                    <Constant>150p</Constant>
                </TextIndex>
            </Apply>
        </DerivedField>
        <DerivedField name="tfidf@[message](150ppm)" optype="continuous" dataType="double">
            <Apply function="*">
                <Constant>6.1835796890776136</Constant>
                <TextIndex textField="lowercase(message)">
                    <Extension value="wont"/>
                    <Constant>150ppm</Constant>
                </TextIndex>
            </Apply>
        </DerivedField>
        <DerivedField name="tfidf@[message](16)" optype="continuous" dataType="double">
            <Apply function="*">
                <Constant>6.3579330762223911</Constant>
                <TextIndex textField="lowercase(message)">
                    <Extension value="take"/>
                    <Constant>16</Constant>
                </TextIndex>
            </Apply>
        </DerivedField>
        <DerivedField name="tfidf@[message](1st)" optype="continuous" dataType="double">
            <Apply function="*">
                <Constant>5.9684683094606683</Constant>
                <TextIndex textField="lowercase(message)">
                    <Extension value="help"/>
                    <Constant>1st</Constant>
                </TextIndex>
            </Apply>
        </DerivedField>
        <DerivedField name="tfidf@[message](2)" optype="continuous" dataType="double">
            <Apply function="*">
                <Constant>3.6691142370480687</Constant>
                <TextIndex textField="lowercase(message)">
                    <Extension value="time"/>
                    <Constant>2</Constant>
                </TextIndex>
            </Apply>
        </DerivedField>
        <DerivedField name="tfidf@[message](2nd)" optype="continuous" dataType="double">
            <Apply function="*">
                <Constant>6.1066186479414855</Constant>
                <TextIndex textField="lowercase(message)">
                    <Extension value="send"/>
                    <Constant>2nd</Constant>
                </TextIndex>
            </Apply>
        </DerivedField>
        <DerivedField name="tfidf@[message](3)" optype="continuous" dataType="double">
            <Apply function="*">
                <Constant>5.4904325085176682</Constant>
                <TextIndex textField="lowercase(message)">
                    <Extension value="ok"/>
                    <Constant>3</Constant>
                </TextIndex>
            </Apply>
        </DerivedField>
        <DerivedField name="tfidf@[message](4)" optype="continuous" dataType="double">
            <Apply function="*">
                <Constant>4.0133837841293136</Constant>
                <TextIndex textField="lowercase(message)">
                    <Extension value="let"/>
                    <Constant>4</Constant>
                </TextIndex>
            </Apply>
        </DerivedField>
        <DerivedField name="tfidf@[message](5)" optype="continuous" dataType="double">
            <Apply function="*">
                <Constant>5.9684683094606683</Constant>
                <TextIndex textField="lowercase(message)">
                    <Extension value="u"/>
                    <Constant>5</Constant>
                </TextIndex>
            </Apply>
        </DerivedField>
        <DerivedField name="tfidf@[message](:)" optype="continuous" dataType="double">
            <Apply function="*">
                <Constant>3.3066309515135894</Constant>
                <TextIndex textField="lowercase(message)">
                    <Extension value="leave"/>
                    <Constant>:</Constant>
                </TextIndex>
            </Apply>
        </DerivedField>
        <DerivedField name="tfidf@[message](;)" optype="continuous" dataType="double">
            <Apply function="*">
                <Constant>3.7929837187608544</Constant>
                <TextIndex textField="lowercase(message)">
                    <Extension value="house"/>
                    <Constant>;</Constant>
                </TextIndex>
            </Apply>
        </DerivedField>
        <DerivedField name="tfidf@[message](?)" optype="continuous" dataType="double">
            <Apply function="*">
                <Constant>2.5459935293512279</Constant>
                <TextIndex textField="lowercase(message)">
                    <Extension value="cool"/>
                    <Constant>?</Constant>
                </TextIndex>
            </Apply>
        </DerivedField>
        <DerivedField name="tfidf@[message](@)" optype="continuous" dataType="double">
            <Apply function="*">
                <Constant>5.9684683094606683</Constant>
                <TextIndex textField="lowercase(message)">
                    <Extension value=","/>
                    <Constant>@</Constant>
                </TextIndex>
            </Apply>
        </DerivedField>
        <DerivedField name="tfidf@[message](``)" optype="continuous" dataType="double">
            <Apply function="*">
                <Constant>4.9836149061492163</Constant>
                <TextIndex textField="lowercase(message)">
                    <Extension value="'re"/>
                    <Constant>``</Constant>
                </TextIndex>
            </Apply>
        </DerivedField>
        <DerivedField name="tfidf@[message](able)" optype="continuous" dataType="double">
            <Apply function="*">
                <Constant>6.3579330762223911</Constant>
                <TextIndex textField="lowercase(message)">
                    <Extension value="ready"/>
                    <Constant>able</Constant>
                </TextIndex>
            </Apply>
        </DerivedField>
        <DerivedField name="tfidf@[message](account)" optype="continuous" dataType="double">
            <Apply function="*">
                <Constant>6.0351596839593400</Constant>
                <TextIndex textField="lowercase(message)">
                    <Extension value="waiting"/>
                    <Constant>account</Constant>
                </TextIndex>
            </Apply>
        </DerivedField>
        <DerivedField name="tfidf@[message](actually)" optype="continuous" dataType="double">
            <Apply function="*">
                <Constant>6.1066186479414855</Constant>
                <TextIndex textField="lowercase(message)">
                    <Extension value="get"/>
                    <Constant>actually</Constant>
                </TextIndex>
            </Apply>
        </DerivedField>
        <DerivedField name="tfidf@[message](ah)" optype="continuous" dataType="double">
            <Apply function="*">
                <Constant>6.0702510037706103</Constant>
                <TextIndex textField="lowercase(message)">
                    <Extension value="thanx"/>
                    <Constant>ah</Constant>
                </TextIndex>
            </Apply>
        </DerivedField>
        <DerivedField name="tfidf@[message](aight)" optype="continuous" dataType="double">
            <Apply function="*">
                <Constant>6.0702510037706103</Constant>
                <TextIndex textField="lowercase(message)">
                    <Extension value="4"/>
                    <Constant>aight</Constant>
                </TextIndex>
            </Apply>
        </DerivedField>
        <DerivedField name="tfidf@[message](already)" optype="continuous" dataType="double">
            <Apply function="*">
                <Constant>5.0849674004095036</Constant>
                <TextIndex textField="lowercase(message)">
                    <Extension value="home"/>
                    <Constant>already</Constant>
                </TextIndex>
            </Apply>
        </DerivedField>
        <DerivedField name="tfidf@[message](also)" optype="continuous" dataType="double">
            <Apply function="*">
                <Constant>5.4904325085176682</Constant>
                <TextIndex textField="lowercase(message)">
                    <Extension value="thats"/>
                    <Constant>also</Constant>
                </TextIndex>
            </Apply>
        </DerivedField>
        <DerivedField name="tfidf@[message](always)" optype="continuous" dataType="double">
            <Apply function="*">
                <Constant>5.4134714673815401</Constant>
                <TextIndex textField="lowercase(message)">
                    <Extension value="number"/>
                    <Constant>always</Constant>
                </TextIndex>
            </Apply>
        </DerivedField>
        <DerivedField name="tfidf@[message](amp)" optype="continuous" dataType="double">
            <Apply function="*">
                <Constant>5.3594042461112643</Constant>
                <TextIndex textField="lowercase(message)">
                    <Extension value="year"/>
                    <Constant>amp</Constant>
                </TextIndex>
            </Apply>
        </DerivedField>
        <DerivedField name="tfidf@[message](another)" optype="continuous" dataType="double">
            <Apply function="*">
                <Constant>6.1066186479414855</Constant>
                <TextIndex textField="lowercase(message)">
                    <Extension value="best"/>
                    <Constant>another</Constant>
                </TextIndex>
            </Apply>
        </DerivedField>
        <DerivedField name="tfidf@[message](anything)" optype="continuous" dataType="double">
            <Apply function="*">
                <Constant>5.2915816497725032</Constant>
                <TextIndex textField="lowercase(message)">
                    <Extension value="got"/>
                    <Constant>anything</Constant>
                </TextIndex>
            </Apply>
        </DerivedField>
        <DerivedField name="tfidf@[message](anyway)" optype="continuous" dataType="double">
            <Apply function="*">
                <Constant>6.2244016835978684</Constant>
                <TextIndex textField="lowercase(message)">
                    <Extension value="friend"/>
                    <Constant>anyway</Constant>
                </TextIndex>
            </Apply>
        </DerivedField>
        <DerivedField name="tfidf@[message](apply)" optype="continuous" dataType="double">
            <Apply function="*">
                <Constant>6.2244016835978684</Constant>
                <TextIndex textField="lowercase(message)">
                    <Extension value="come"/>
                    <Constant>apply</Constant>
                </TextIndex>
            </Apply>
        </DerivedField>
        <DerivedField name="tfidf@[message](around)" optype="continuous" dataType="double">
            <Apply function="*">
                <Constant>5.4904325085176682</Constant>
                <TextIndex textField="lowercase(message)">
                    <Extension value="around"/>
                    <Constant>around</Constant>
                </TextIndex>
            </Apply>
        </DerivedField>
        <DerivedField name="tfidf@[message](ask)" optype="continuous" dataType="double">
            <Apply function="*">
                <Constant>5.2280682440501769</Constant>
                <TextIndex textField="lowercase(message)">
                    <Extension value="&amp;"/>
                    <Constant>ask</Constant>
                </TextIndex>
            </Apply>
        </DerivedField>
        <DerivedField name="tfidf@[message](asked)" optype="continuous" dataType="double">
            <Apply function="*">
                <Constant>6.1835796890776136</Constant>
                <TextIndex textField="lowercase(message)">
                    <Extension value="lt"/>
                    <Constant>asked</Constant>
                </TextIndex>
            </Apply>
        </DerivedField>
        <DerivedField name="tfidf@[message](awarded)" optype="continuous" dataType="double">
            <Apply function="*">
                <Constant>6.0351596839593400</Constant>
                <TextIndex textField="lowercase(message)">
                    <Extension value=";"/>
                    <Constant>awarded</Constant>
                </TextIndex>
            </Apply>
        </DerivedField>
        <DerivedField name="tfidf@[message](b)" optype="continuous" dataType="double">
            <Apply function="*">
                <Constant>5.4512117953643866</Constant>
                <TextIndex textField="lowercase(message)">
                    <Extension value="gt"/>
                    <Constant>b</Constant>
                </TextIndex>
            </Apply>
        </DerivedField>
        <DerivedField name="tfidf@[message](babe)" optype="continuous" dataType="double">
            <Apply function="*">
                <Constant>5.2435724305861422</Constant>
                <TextIndex textField="lowercase(message)">
                    <Extension value="'m"/>
                    <Constant>babe</Constant>
                </TextIndex>
            </Apply>
        </DerivedField>
        <DerivedField name="tfidf@[message](baby)" optype="continuous" dataType="double">
            <Apply function="*">
                <Constant>6.0351596839593400</Constant>
                <TextIndex textField="lowercase(message)">
                    <Extension value="know"/>
                    <Constant>baby</Constant>
                </TextIndex>
            </Apply>
        </DerivedField>
        <DerivedField name="tfidf@[message](back)" optype="continuous" dataType="double">
            <Apply function="*">
                <Constant>4.6149637711637688</Constant>
                <TextIndex textField="lowercase(message)">
                    <Extension value="msg"/>
                    <Constant>back</Constant>
                </TextIndex>
            </Apply>
        </DerivedField>
        <DerivedField name="tfidf@[message](bad)" optype="continuous" dataType="double">
            <Apply function="*">
                <Constant>6.1835796890776136</Constant>
                <TextIndex textField="lowercase(message)">
                    <Extension value="asked"/>
                    <Constant>bad</Constant>
                </TextIndex>
            </Apply>
        </DerivedField>
        <DerivedField name="tfidf@[message](bed)" optype="continuous" dataType="double">
            <Apply function="*">
                <Constant>6.1443589759243320</Constant>
                <TextIndex textField="lowercase(message)">
                    <Extension value="dad"/>
                    <Constant>bed</Constant>
                </TextIndex>
            </Apply>
        </DerivedField>
        <DerivedField name="tfidf@[message](best)" optype="continuous" dataType="double">
            <Apply function="*">
                <Constant>5.7648693542194280</Constant>
                <TextIndex textField="lowercase(message)">
                    <Extension value="say"/>
                    <Constant>best</Constant>
                </TextIndex>
            </Apply>
        </DerivedField>
        <DerivedField name="tfidf@[message](better)" optype="continuous" dataType="double">
            <Apply function="*">
                <Constant>5.9367196111460876</Constant>
                <TextIndex textField="lowercase(message)">
                    <Extension value="urgent"/>
                    <Constant>better</Constant>
                </TextIndex>
            </Apply>
        </DerivedField>
        <DerivedField name="tfidf@[message](big)" optype="continuous" dataType="double">
            <Apply function="*">
                <Constant>6.0012581322836587</Constant>
                <TextIndex textField="lowercase(message)">
                    <Extension value="free"/>
                    <Constant>big</Constant>
                </TextIndex>
            </Apply>
        </DerivedField>
        <DerivedField name="tfidf@[message](birthday)" optype="continuous" dataType="double">
            <Apply function="*">
                <Constant>6.3579330762223911</Constant>
                <TextIndex textField="lowercase(message)">
                    <Extension value="give"/>
                    <Constant>birthday</Constant>
                </TextIndex>
            </Apply>
        </DerivedField>
        <DerivedField name="tfidf@[message](bit)" optype="continuous" dataType="double">
            <Apply function="*">
                <Constant>5.8760949893296530</Constant>
                <TextIndex textField="lowercase(message)">
                    <Extension value="claim"/>
                    <Constant>bit</Constant>
                </TextIndex>
            </Apply>
        </DerivedField>
        <DerivedField name="tfidf@[message](book)" optype="continuous" dataType="double">
            <Apply function="*">
                <Constant>6.3579330762223911</Constant>
                <TextIndex textField="lowercase(message)">
                    <Extension value="line"/>
                    <Constant>book</Constant>
                </TextIndex>
            </Apply>
        </DerivedField>
        <DerivedField name="tfidf@[message](box)" optype="continuous" dataType="double">
            <Apply function="*">
                <Constant>5.9684683094606683</Constant>
                <TextIndex textField="lowercase(message)">
                    <Extension value="said"/>
                    <Constant>box</Constant>
                </TextIndex>
            </Apply>
        </DerivedField>
        <DerivedField name="tfidf@[message](boy)" optype="continuous" dataType="double">
            <Apply function="*">
                <Constant>6.3579330762223911</Constant>
                <TextIndex textField="lowercase(message)">
                    <Extension value=":"/>
                    <Constant>boy</Constant>
                </TextIndex>
            </Apply>
        </DerivedField>
        <DerivedField name="tfidf@[message](bring)" optype="continuous" dataType="double">
            <Apply function="*">
                <Constant>6.3114130605874985</Constant>
                <TextIndex textField="lowercase(message)">
                    <Extension value="``"/>
                    <Constant>bring</Constant>
                </TextIndex>
            </Apply>
        </DerivedField>
        <DerivedField name="tfidf@[message](bt)" optype="continuous" dataType="double">
            <Apply function="*">
                <Constant>6.2244016835978684</Constant>
                <TextIndex textField="lowercase(message)">
                    <Extension value="wait"/>
                    <Constant>bt</Constant>
                </TextIndex>
            </Apply>
        </DerivedField>
        <DerivedField name="tfidf@[message](bus)" optype="continuous" dataType="double">
            <Apply function="*">
                <Constant>6.0702510037706103</Constant>
                <TextIndex textField="lowercase(message)">
                    <Extension value="day"/>
                    <Constant>bus</Constant>
                </TextIndex>
            </Apply>
        </DerivedField>
        <DerivedField name="tfidf@[message](buy)" optype="continuous" dataType="double">
            <Apply function="*">
                <Constant>5.5106352158351877</Constant>
                <TextIndex textField="lowercase(message)">
                    <Extension value="''"/>
                    <Constant>buy</Constant>
                </TextIndex>
            </Apply>
        </DerivedField>
        <DerivedField name="tfidf@[message](c)" optype="continuous" dataType="double">
            <Apply function="*">
                <Constant>4.6233320208342850</Constant>
                <TextIndex textField="lowercase(message)">
                    <Extension value="?"/>
                    <Constant>c</Constant>
                </TextIndex>
            </Apply>
        </DerivedField>
        <DerivedField name="tfidf@[message](ca)" optype="continuous" dataType="double">
            <Apply function="*">
                <Constant>5.5957930241754941</Constant>
                <TextIndex textField="lowercase(message)">
                    <Extension value="yet"/>
                    <Constant>ca</Constant>
                </TextIndex>
            </Apply>
        </DerivedField>
        <DerivedField name="tfidf@[message](call)" optype="continuous" dataType="double">
            <Apply function="*">
                <Constant>3.3363474238420663</Constant>
                <TextIndex textField="lowercase(message)">
                    <Extension value="remember"/>
                    <Constant>call</Constant>
                </TextIndex>
            </Apply>
        </DerivedField>
        <DerivedField name="tfidf@[message](called)" optype="continuous" dataType="double">
            <Apply function="*">
                <Constant>6.1835796890776136</Constant>
                <TextIndex textField="lowercase(message)">
                    <Extension value="kiss"/>
                    <Constant>called</Constant>
                </TextIndex>
            </Apply>
        </DerivedField>
        <DerivedField name="tfidf@[message](came)" optype="continuous" dataType="double">
            <Apply function="*">
                <Constant>6.3114130605874985</Constant>
                <TextIndex textField="lowercase(message)">
                    <Extension value="morning"/>
                    <Constant>came</Constant>
                </TextIndex>
            </Apply>
        </DerivedField>
        <DerivedField name="tfidf@[message](camera)" optype="continuous" dataType="double">
            <Apply function="*">
                <Constant>6.1443589759243320</Constant>
                <TextIndex textField="lowercase(message)">
                    <Extension value="think"/>
                    <Constant>camera</Constant>
                </TextIndex>
            </Apply>
        </DerivedField>
        <DerivedField name="tfidf@[message](cant)" optype="continuous" dataType="double">
            <Apply function="*">
                <Constant>5.4512117953643866</Constant>
                <TextIndex textField="lowercase(message)">
                    <Extension value="jus"/>
                    <Constant>cant</Constant>
                </TextIndex>
            </Apply>
        </DerivedField>
        <DerivedField name="tfidf@[message](car)" optype="continuous" dataType="double">
            <Apply function="*">
                <Constant>5.7388938678161674</Constant>
                <TextIndex textField="lowercase(message)">
                    <Extension value="great"/>
                    <Constant>car</Constant>
                </TextIndex>
            </Apply>
        </DerivedField>
        <DerivedField name="tfidf@[message](care)" optype="continuous" dataType="double">
            <Apply function="*">
                <Constant>5.3081109517237133</Constant>
                <TextIndex textField="lowercase(message)">
                    <Extension value="one"/>
                    <Constant>care</Constant>
                </TextIndex>
            </Apply>
        </DerivedField>
        <DerivedField name="tfidf@[message](cash)" optype="continuous" dataType="double">
            <Apply function="*">
                <Constant>5.3081109517237133</Constant>
                <TextIndex textField="lowercase(message)">
                    <Extension value="end"/>
                    <Constant>cash</Constant>
                </TextIndex>
            </Apply>
        </DerivedField>
        <DerivedField name="tfidf@[message](chance)" optype="continuous" dataType="double">
            <Apply function="*">
                <Constant>5.8189365754897038</Constant>
                <TextIndex textField="lowercase(message)">
                    <Extension value="might"/>
                    <Constant>chance</Constant>
                </TextIndex>
            </Apply>
        </DerivedField>
        <DerivedField name="tfidf@[message](change)" optype="continuous" dataType="double">
            <Apply function="*">
                <Constant>6.3579330762223911</Constant>
                <TextIndex textField="lowercase(message)">
                    <Extension value="still"/>
                    <Constant>change</Constant>
                </TextIndex>
            </Apply>
        </DerivedField>
        <DerivedField name="tfidf@[message](chat)" optype="continuous" dataType="double">
            <Apply function="*">
                <Constant>5.5523079122357553</Constant>
                <TextIndex textField="lowercase(message)">
                    <Extension value="everything"/>
                    <Constant>chat</Constant>
                </TextIndex>
            </Apply>
        </DerivedField>
        <DerivedField name="tfidf@[message](check)" optype="continuous" dataType="double">
            <Apply function="*">
                <Constant>5.9367196111460876</Constant>
                <TextIndex textField="lowercase(message)">
                    <Extension value="people"/>
                    <Constant>check</Constant>
                </TextIndex>
            </Apply>
        </DerivedField>
        <DerivedField name="tfidf@[message](claim)" optype="continuous" dataType="double">
            <Apply function="*">
                <Constant>4.8806669368967741</Constant>
                <TextIndex textField="lowercase(message)">
                    <Extension value="chance"/>
                    <Constant>claim</Constant>
                </TextIndex>
            </Apply>
        </DerivedField>
        <DerivedField name="tfidf@[message](class)" optype="continuous" dataType="double">
            <Apply function="*">
                <Constant>5.7915376013015898</Constant>
                <TextIndex textField="lowercase(message)">
                    <Extension value="try"/>
                    <Constant>class</Constant>
                </TextIndex>
            </Apply>
        </DerivedField>
        <DerivedField name="tfidf@[message](co)" optype="continuous" dataType="double">
            <Apply function="*">
                <Constant>5.1829478087697076</Constant>
                <TextIndex textField="lowercase(message)">
                    <Extension value=")"/>
                    <Constant>co</Constant>
                </TextIndex>
            </Apply>
        </DerivedField>
        <DerivedField name="tfidf@[message](code)" optype="continuous" dataType="double">
            <Apply function="*">
                <Constant>6.1443589759243320</Constant>
                <TextIndex textField="lowercase(message)">
                    <Extension value="hi"/>
                    <Constant>code</Constant>
                </TextIndex>
            </Apply>
        </DerivedField>
        <DerivedField name="tfidf@[message](collect)" optype="continuous" dataType="double">
            <Apply function="*">
                <Constant>6.1066186479414855</Constant>
                <TextIndex textField="lowercase(message)">
                    <Extension value="back"/>
                    <Constant>collect</Constant>
                </TextIndex>
            </Apply>
        </DerivedField>
        <DerivedField name="tfidf@[message](come)" optype="continuous" dataType="double">
            <Apply function="*">
                <Constant>4.1929693611043932</Constant>
                <TextIndex textField="lowercase(message)">
                    <Extension value="("/>
                    <Constant>come</Constant>
                </TextIndex>
            </Apply>
        </DerivedField>
        <DerivedField name="tfidf@[message](coming)" optype="continuous" dataType="double">
            <Apply function="*">
                <Constant>5.7135760598318779</Constant>
                <TextIndex textField="lowercase(message)">
                    <Extension value="'s"/>
                    <Constant>coming</Constant>
                </TextIndex>
            </Apply>
        </DerivedField>
        <DerivedField name="tfidf@[message](contact)" optype="continuous" dataType="double">
            <Apply function="*">
                <Constant>5.3420125033993946</Constant>
                <TextIndex textField="lowercase(message)">
                    <Extension value="b"/>
                    <Constant>contact</Constant>
                </TextIndex>
            </Apply>
        </DerivedField>
        <DerivedField name="tfidf@[message](cool)" optype="continuous" dataType="double">
            <Apply function="*">
                <Constant>5.8471074524564006</Constant>
                <TextIndex textField="lowercase(message)">
                    <Extension value="tonight"/>
                    <Constant>cool</Constant>
                </TextIndex>
            </Apply>
        </DerivedField>
        <DerivedField name="tfidf@[message](cost)" optype="continuous" dataType="double">
            <Apply function="*">
                <Constant>5.9367196111460876</Constant>
                <TextIndex textField="lowercase(message)">
                    <Extension value="week"/>
                    <Constant>cost</Constant>
                </TextIndex>
            </Apply>
        </DerivedField>
        <DerivedField name="tfidf@[message](could)" optype="continuous" dataType="double">
            <Apply function="*">
                <Constant>5.5106352158351877</Constant>
                <TextIndex textField="lowercase(message)">
                    <Extension value="money"/>
                    <Constant>could</Constant>
                </TextIndex>
            </Apply>
        </DerivedField>
        <DerivedField name="tfidf@[message](customer)" optype="continuous" dataType="double">
            <Apply function="*">
                <Constant>5.6182658800275531</Constant>
                <TextIndex textField="lowercase(message)">
                    <Extension value="cost"/>
                    <Constant>customer</Constant>
                </TextIndex>
            </Apply>
        </DerivedField>
        <DerivedField name="tfidf@[message](da)" optype="continuous" dataType="double">
            <Apply function="*">
                <Constant>4.6750676952334738</Constant>
                <TextIndex textField="lowercase(message)">
                    <Extension value="guess"/>
                    <Constant>da</Constant>
                </TextIndex>
            </Apply>
        </DerivedField>
        <DerivedField name="tfidf@[message](dad)" optype="continuous" dataType="double">
            <Apply function="*">
                <Constant>6.1066186479414855</Constant>
                <TextIndex textField="lowercase(message)">
                    <Extension value="bad"/>
                    <Constant>dad</Constant>
                </TextIndex>
            </Apply>
        </DerivedField>
        <DerivedField name="tfidf@[message](dat)" optype="continuous" dataType="double">
            <Apply function="*">
                <Constant>5.8471074524564006</Constant>
                <TextIndex textField="lowercase(message)">
                    <Extension value="miss"/>
                    <Constant>dat</Constant>
                </TextIndex>
            </Apply>
        </DerivedField>
        <DerivedField name="tfidf@[message](day)" optype="continuous" dataType="double">
            <Apply function="*">
                <Constant>4.2039584826799885</Constant>
                <TextIndex textField="lowercase(message)">
                    <Extension value="ya"/>
                    <Constant>day</Constant>
                </TextIndex>
            </Apply>
        </DerivedField>
        <DerivedField name="tfidf@[message](dear)" optype="continuous" dataType="double">
            <Apply function="*">
                <Constant>4.9138191442136741</Constant>
                <TextIndex textField="lowercase(message)">
                    <Extension value="need"/>
                    <Constant>dear</Constant>
                </TextIndex>
            </Apply>
        </DerivedField>
        <DerivedField name="tfidf@[message](detail)" optype="continuous" dataType="double">
            <Apply function="*">
                <Constant>6.3114130605874985</Constant>
                <TextIndex textField="lowercase(message)">
                    <Extension value="want"/>
                    <Constant>detail</Constant>
                </TextIndex>
            </Apply>
        </DerivedField>
        <DerivedField name="tfidf@[message](didnt)" optype="continuous" dataType="double">
            <Apply function="*">
                <Constant>6.1443589759243320</Constant>
                <TextIndex textField="lowercase(message)">
                    <Extension value="going"/>
                    <Constant>didnt</Constant>
                </TextIndex>
            </Apply>
        </DerivedField>
        <DerivedField name="tfidf@[message](dinner)" optype="continuous" dataType="double">
            <Apply function="*">
                <Constant>5.9684683094606683</Constant>
                <TextIndex textField="lowercase(message)">
                    <Extension value="hope"/>
                    <Constant>dinner</Constant>
                </TextIndex>
            </Apply>
        </DerivedField>
        <DerivedField name="tfidf@[message](dis)" optype="continuous" dataType="double">
            <Apply function="*">
                <Constant>6.1066186479414855</Constant>
                <TextIndex textField="lowercase(message)">
                    <Extension value="r"/>
                    <Constant>dis</Constant>
                </TextIndex>
            </Apply>
        </DerivedField>
        <DerivedField name="tfidf@[message](done)" optype="continuous" dataType="double">
            <Apply function="*">
                <Constant>5.6888834472415066</Constant>
                <TextIndex textField="lowercase(message)">
                    <Extension value="good"/>
                    <Constant>done</Constant>
                </TextIndex>
            </Apply>
        </DerivedField>
        <DerivedField name="tfidf@[message](dont)" optype="continuous" dataType="double">
            <Apply function="*">
                <Constant>4.6839566426507195</Constant>
                <TextIndex textField="lowercase(message)">
                    <Extension value="big"/>
                    <Constant>dont</Constant>
                </TextIndex>
            </Apply>
        </DerivedField>
        <DerivedField name="tfidf@[message](draw)" optype="continuous" dataType="double">
            <Apply function="*">
                <Constant>5.8471074524564006</Constant>
                <TextIndex textField="lowercase(message)">
                    <Extension value="sent"/>
                    <Constant>draw</Constant>
                </TextIndex>
            </Apply>
        </DerivedField>
        <DerivedField name="tfidf@[message](dream)" optype="continuous" dataType="double">
            <Apply function="*">
                <Constant>6.3579330762223911</Constant>
                <TextIndex textField="lowercase(message)">
                    <Extension value="bed"/>
                    <Constant>dream</Constant>
                </TextIndex>
            </Apply>
        </DerivedField>
        <DerivedField name="tfidf@[message](drink)" optype="continuous" dataType="double">
            <Apply function="*">
                <Constant>6.3579330762223911</Constant>
                <TextIndex textField="lowercase(message)">
                    <Extension value="princess"/>
                    <Constant>drink</Constant>
                </TextIndex>
            </Apply>
        </DerivedField>
        <DerivedField name="tfidf@[message](dun)" optype="continuous" dataType="double">
            <Apply function="*">
                <Constant>5.7388938678161674</Constant>
                <TextIndex textField="lowercase(message)">
                    <Extension value="buy"/>
                    <Constant>dun</Constant>
                </TextIndex>
            </Apply>
        </DerivedField>
        <DerivedField name="tfidf@[message](dunno)" optype="continuous" dataType="double">
            <Apply function="*">
                <Constant>6.0702510037706103</Constant>
                <TextIndex textField="lowercase(message)">
                    <Extension value="#"/>
                    <Constant>dunno</Constant>
                </TextIndex>
            </Apply>
        </DerivedField>
        <DerivedField name="tfidf@[message](e)" optype="continuous" dataType="double">
            <Apply function="*">
                <Constant>5.3420125033993946</Constant>
                <TextIndex textField="lowercase(message)">
                    <Extension value="late"/>
                    <Constant>e</Constant>
                </TextIndex>
            </Apply>
        </DerivedField>
        <DerivedField name="tfidf@[message](early)" optype="continuous" dataType="double">
            <Apply function="*">
                <Constant>6.1443589759243320</Constant>
                <TextIndex textField="lowercase(message)">
                    <Extension value="dinner"/>
                    <Constant>early</Constant>
                </TextIndex>
            </Apply>
        </DerivedField>
        <DerivedField name="tfidf@[message](easy)" optype="continuous" dataType="double">
            <Apply function="*">
                <Constant>6.0702510037706103</Constant>
                <TextIndex textField="lowercase(message)">
                    <Extension value="oh"/>
                    <Constant>easy</Constant>
                </TextIndex>
            </Apply>
        </DerivedField>
        <DerivedField name="tfidf@[message](eat)" optype="continuous" dataType="double">
            <Apply function="*">
                <Constant>6.1443589759243320</Constant>
                <TextIndex textField="lowercase(message)">
                    <Extension value="cant"/>
                    <Constant>eat</Constant>
                </TextIndex>
            </Apply>
        </DerivedField>
        <DerivedField name="tfidf@[message](end)" optype="continuous" dataType="double">
            <Apply function="*">
                <Constant>5.8189365754897038</Constant>
                <TextIndex textField="lowercase(message)">
                    <Extension value="baby"/>
                    <Constant>end</Constant>
                </TextIndex>
            </Apply>
        </DerivedField>
        <DerivedField name="tfidf@[message](enjoy)" optype="continuous" dataType="double">
            <Apply function="*">
                <Constant>6.0012581322836587</Constant>
                <TextIndex textField="lowercase(message)">
                    <Extension value="dont"/>
                    <Constant>enjoy</Constant>
                </TextIndex>
            </Apply>
        </DerivedField>
        <DerivedField name="tfidf@[message](enough)" optype="continuous" dataType="double">
            <Apply function="*">
                <Constant>6.1443589759243320</Constant>
                <TextIndex textField="lowercase(message)">
                    <Extension value="new"/>
                    <Constant>enough</Constant>
                </TextIndex>
            </Apply>
        </DerivedField>
        <DerivedField name="tfidf@[message](even)" optype="continuous" dataType="double">
            <Apply function="*">
                <Constant>5.5312545030379230</Constant>
                <TextIndex textField="lowercase(message)">
                    <Extension value="see"/>
                    <Constant>even</Constant>
                </TextIndex>
            </Apply>
        </DerivedField>
        <DerivedField name="tfidf@[message](evening)" optype="continuous" dataType="double">
            <Apply function="*">
                <Constant>6.3114130605874985</Constant>
                <TextIndex textField="lowercase(message)">
                    <Extension value="always"/>
                    <Constant>evening</Constant>
                </TextIndex>
            </Apply>
        </DerivedField>
        <DerivedField name="tfidf@[message](ever)" optype="continuous" dataType="double">
            <Apply function="*">
                <Constant>6.1443589759243320</Constant>
                <TextIndex textField="lowercase(message)">
                    <Extension value="gon"/>
                    <Constant>ever</Constant>
                </TextIndex>
            </Apply>
        </DerivedField>
        <DerivedField name="tfidf@[message](every)" optype="continuous" dataType="double">
            <Apply function="*">
                <Constant>5.3594042461112643</Constant>
                <TextIndex textField="lowercase(message)">
                    <Extension value="na"/>
                    <Constant>every</Constant>
                </TextIndex>
            </Apply>
        </DerivedField>
        <DerivedField name="tfidf@[message](everything)" optype="continuous" dataType="double">
            <Apply function="*">
                <Constant>6.1066186479414855</Constant>
                <TextIndex textField="lowercase(message)">
                    <Extension value="movie"/>
                    <Constant>everything</Constant>
                </TextIndex>
            </Apply>
        </DerivedField>
        <DerivedField name="tfidf@[message](family)" optype="continuous" dataType="double">
            <Apply function="*">
                <Constant>6.3114130605874985</Constant>
                <TextIndex textField="lowercase(message)">
                    <Extension value="anything"/>
                    <Constant>family</Constant>
                </TextIndex>
            </Apply>
        </DerivedField>
        <DerivedField name="tfidf@[message](feel)" optype="continuous" dataType="double">
            <Apply function="*">
                <Constant>5.4134714673815401</Constant>
                <TextIndex textField="lowercase(message)">
                    <Extension value="txt"/>
                    <Constant>feel</Constant>
                </TextIndex>
            </Apply>
        </DerivedField>
        <DerivedField name="tfidf@[message](find)" optype="continuous" dataType="double">
            <Apply function="*">
                <Constant>5.2753211289007229</Constant>
                <TextIndex textField="lowercase(message)">
                    <Extension value="n"/>
                    <Constant>find</Constant>
                </TextIndex>
            </Apply>
        </DerivedField>
        <DerivedField name="tfidf@[message](fine)" optype="continuous" dataType="double">
            <Apply function="*">
                <Constant>5.7388938678161674</Constant>
                <TextIndex textField="lowercase(message)">
                    <Extension value="'"/>
                    <Constant>fine</Constant>
                </TextIndex>
            </Apply>
        </DerivedField>
        <DerivedField name="tfidf@[message](finish)" optype="continuous" dataType="double">
            <Apply function="*">
                <Constant>5.7648693542194280</Constant>
                <TextIndex textField="lowercase(message)">
                    <Extension value="hav"/>
                    <Constant>finish</Constant>
                </TextIndex>
            </Apply>
        </DerivedField>
        <DerivedField name="tfidf@[message](first)" optype="continuous" dataType="double">
            <Apply function="*">
                <Constant>5.4512117953643866</Constant>
                <TextIndex textField="lowercase(message)">
                    <Extension value="month"/>
                    <Constant>first</Constant>
                </TextIndex>
            </Apply>
        </DerivedField>
        <DerivedField name="tfidf@[message](forgot)" optype="continuous" dataType="double">
            <Apply function="*">
                <Constant>6.2244016835978684</Constant>
                <TextIndex textField="lowercase(message)">
                    <Extension value="amp"/>
                    <Constant>forgot</Constant>
                </TextIndex>
            </Apply>
        </DerivedField>
        <DerivedField name="tfidf@[message](free)" optype="continuous" dataType="double">
            <Apply function="*">
                <Constant>4.2039584826799885</Constant>
                <TextIndex textField="lowercase(message)">
                    <Extension value="wish"/>
                    <Constant>free</Constant>
                </TextIndex>
            </Apply>
        </DerivedField>
        <DerivedField name="tfidf@[message](friend)" optype="continuous" dataType="double">
            <Apply function="*">
                <Constant>5.0330076614787931</Constant>
                <TextIndex textField="lowercase(message)">
                    <Extension value="2"/>
                    <Constant>friend</Constant>
                </TextIndex>
            </Apply>
        </DerivedField>
        <DerivedField name="tfidf@[message](fuck)" optype="continuous" dataType="double">
            <Apply function="*">
                <Constant>6.3114130605874985</Constant>
                <TextIndex textField="lowercase(message)">
                    <Extension value="soon"/>
                    <Constant>fuck</Constant>
                </TextIndex>
            </Apply>
        </DerivedField>
        <DerivedField name="tfidf@[message](fun)" optype="continuous" dataType="double">
            <Apply function="*">
                <Constant>6.0351596839593400</Constant>
                <TextIndex textField="lowercase(message)">
                    <Extension value="car"/>
                    <Constant>fun</Constant>
                </TextIndex>
            </Apply>
        </DerivedField>
        <DerivedField name="tfidf@[message](game)" optype="continuous" dataType="double">
            <Apply function="*">
                <Constant>6.1066186479414855</Constant>
                <TextIndex textField="lowercase(message)">
                    <Extension value="ask"/>
                    <Constant>game</Constant>
                </TextIndex>
            </Apply>
        </DerivedField>
        <DerivedField name="tfidf@[message](get)" optype="continuous" dataType="double">
            <Apply function="*">
                <Constant>3.6658832164666224</Constant>
                <TextIndex textField="lowercase(message)">
                    <Extension value="lot"/>
                    <Constant>get</Constant>
                </TextIndex>
            </Apply>
        </DerivedField>
        <DerivedField name="tfidf@[message](getting)" optype="continuous" dataType="double">
            <Apply function="*">
                <Constant>5.5957930241754941</Constant>
                <TextIndex textField="lowercase(message)">
                    <Extension value="haha"/>
                    <Constant>getting</Constant>
                </TextIndex>
            </Apply>
        </DerivedField>
        <DerivedField name="tfidf@[message](gift)" optype="continuous" dataType="double">
            <Apply function="*">
                <Constant>6.3579330762223911</Constant>
                <TextIndex textField="lowercase(message)">
                    <Extension value="meet"/>
                    <Constant>gift</Constant>
                </TextIndex>
            </Apply>
        </DerivedField>
        <DerivedField name="tfidf@[message](girl)" optype="continuous" dataType="double">
            <Apply function="*">
                <Constant>5.9367196111460876</Constant>
                <TextIndex textField="lowercase(message)">
                    <Extension value="ur"/>
                    <Constant>girl</Constant>
                </TextIndex>
            </Apply>
        </DerivedField>
        <DerivedField name="tfidf@[message](give)" optype="continuous" dataType="double">
            <Apply function="*">
                <Constant>5.0983904207416444</Constant>
                <TextIndex textField="lowercase(message)">
                    <Extension value="life"/>
                    <Constant>give</Constant>
                </TextIndex>
            </Apply>
        </DerivedField>
        <DerivedField name="tfidf@[message](go)" optype="continuous" dataType="double">
            <Apply function="*">
                <Constant>4.0042928124280612</Constant>
                <TextIndex textField="lowercase(message)">
                    <Extension value="n't"/>
                    <Constant>go</Constant>
                </TextIndex>
            </Apply>
        </DerivedField>
        <DerivedField name="tfidf@[message](god)" optype="continuous" dataType="double">
            <Apply function="*">
                <Constant>5.9367196111460876</Constant>
                <TextIndex textField="lowercase(message)">
                    <Extension value="gud"/>
                    <Constant>god</Constant>
                </TextIndex>
            </Apply>
        </DerivedField>
        <DerivedField name="tfidf@[message](going)" optype="continuous" dataType="double">
            <Apply function="*">
                <Constant>4.4536956235676453</Constant>
                <TextIndex textField="lowercase(message)">
                    <Extension value="yes"/>
                    <Constant>going</Constant>
                </TextIndex>
            </Apply>
        </DerivedField>
        <DerivedField name="tfidf@[message](gon)" optype="continuous" dataType="double">
            <Apply function="*">
                <Constant>5.5312545030379230</Constant>
                <TextIndex textField="lowercase(message)">
                    <Extension value="really"/>
                    <Constant>gon</Constant>
                </TextIndex>
            </Apply>
        </DerivedField>
        <DerivedField name="tfidf@[message](good)" optype="continuous" dataType="double">
            <Apply function="*">
                <Constant>4.2263057813719849</Constant>
                <TextIndex textField="lowercase(message)">
                    <Extension value="told"/>
                    <Constant>good</Constant>
                </TextIndex>
            </Apply>
        </DerivedField>
        <DerivedField name="tfidf@[message](got)" optype="continuous" dataType="double">
            <Apply function="*">
                <Constant>4.1501820858991838</Constant>
                <TextIndex textField="lowercase(message)">
                    <Extension value="world"/>
                    <Constant>got</Constant>
                </TextIndex>
            </Apply>
        </DerivedField>
        <DerivedField name="tfidf@[message](great)" optype="continuous" dataType="double">
            <Apply function="*">
                <Constant>4.9598042574554970</Constant>
                <TextIndex textField="lowercase(message)">
                    <Extension value="forgot"/>
                    <Constant>great</Constant>
                </TextIndex>
            </Apply>
        </DerivedField>
        <DerivedField name="tfidf@[message](gt)" optype="continuous" dataType="double">
            <Apply function="*">
                <Constant>4.1449601419180322</Constant>
                <TextIndex textField="lowercase(message)">
                    <Extension value="1st"/>
                    <Constant>gt</Constant>
                </TextIndex>
            </Apply>
        </DerivedField>
        <DerivedField name="tfidf@[message](guaranteed)" optype="continuous" dataType="double">
            <Apply function="*">
                <Constant>5.7135760598318779</Constant>
                <TextIndex textField="lowercase(message)">
                    <Extension value="nokia"/>
                    <Constant>guaranteed</Constant>
                </TextIndex>
            </Apply>
        </DerivedField>
        <DerivedField name="tfidf@[message](gud)" optype="continuous" dataType="double">
            <Apply function="*">
                <Constant>5.4904325085176682</Constant>
                <TextIndex textField="lowercase(message)">
                    <Extension value="tone"/>
                    <Constant>gud</Constant>
                </TextIndex>
            </Apply>
        </DerivedField>
        <DerivedField name="tfidf@[message](guess)" optype="continuous" dataType="double">
            <Apply function="*">
                <Constant>6.0012581322836587</Constant>
                <TextIndex textField="lowercase(message)">
                    <Extension value="mobile"/>
                    <Constant>guess</Constant>
                </TextIndex>
            </Apply>
        </DerivedField>
        <DerivedField name="tfidf@[message](guy)" optype="continuous" dataType="double">
            <Apply function="*">
                <Constant>5.4512117953643866</Constant>
                <TextIndex textField="lowercase(message)">
                    <Extension value="every"/>
                    <Constant>guy</Constant>
                </TextIndex>
            </Apply>
        </DerivedField>
        <DerivedField name="tfidf@[message](haf)" optype="continuous" dataType="double">
            <Apply function="*">
                <Constant>6.3579330762223911</Constant>
                <TextIndex textField="lowercase(message)">
                    <Extension value="tell"/>
                    <Constant>haf</Constant>
                </TextIndex>
            </Apply>
        </DerivedField>
        <DerivedField name="tfidf@[message](haha)" optype="continuous" dataType="double">
            <Apply function="*">
                <Constant>5.8189365754897038</Constant>
                <TextIndex textField="lowercase(message)">
                    <Extension value="mate"/>
                    <Constant>haha</Constant>
                </TextIndex>
            </Apply>
        </DerivedField>
        <DerivedField name="tfidf@[message](half)" optype="continuous" dataType="double">
            <Apply function="*">
                <Constant>5.9684683094606683</Constant>
                <TextIndex textField="lowercase(message)">
                    <Extension value="would"/>
                    <Constant>half</Constant>
                </TextIndex>
            </Apply>
        </DerivedField>
        <DerivedField name="tfidf@[message](happy)" optype="continuous" dataType="double">
            <Apply function="*">
                <Constant>5.1829478087697076</Constant>
                <TextIndex textField="lowercase(message)">
                    <Extension value="today"/>
                    <Constant>happy</Constant>
                </TextIndex>
            </Apply>
        </DerivedField>
        <DerivedField name="tfidf@[message](hav)" optype="continuous" dataType="double">
            <Apply function="*">
                <Constant>6.3114130605874985</Constant>
                <TextIndex textField="lowercase(message)">
                    <Extension value="getting"/>
                    <Constant>hav</Constant>
                </TextIndex>
            </Apply>
        </DerivedField>
        <DerivedField name="tfidf@[message](havent)" optype="continuous" dataType="double">
            <Apply function="*">
                <Constant>6.3579330762223911</Constant>
                <TextIndex textField="lowercase(message)">
                    <Extension value="care"/>
                    <Constant>havent</Constant>
                </TextIndex>
            </Apply>
        </DerivedField>
        <DerivedField name="tfidf@[message](hear)" optype="continuous" dataType="double">
            <Apply function="*">
                <Constant>6.1443589759243320</Constant>
                <TextIndex textField="lowercase(message)">
                    <Extension value="worry"/>
                    <Constant>hear</Constant>
                </TextIndex>
            </Apply>
        </DerivedField>
        <DerivedField name="tfidf@[message](heart)" optype="continuous" dataType="double">
            <Apply function="*">
                <Constant>6.0012581322836587</Constant>
                <TextIndex textField="lowercase(message)">
                    <Extension value="sound"/>
                    <Constant>heart</Constant>
                </TextIndex>
            </Apply>
        </DerivedField>
        <DerivedField name="tfidf@[message](hello)" optype="continuous" dataType="double">
            <Apply function="*">
                <Constant>5.8189365754897038</Constant>
                <TextIndex textField="lowercase(message)">
                    <Extension value="-"/>
                    <Constant>hello</Constant>
                </TextIndex>
            </Apply>
        </DerivedField>
        <DerivedField name="tfidf@[message](help)" optype="continuous" dataType="double">
            <Apply function="*">
                <Constant>5.6182658800275531</Constant>
                <TextIndex textField="lowercase(message)">
                    <Extension value="thanks"/>
                    <Constant>help</Constant>
                </TextIndex>
            </Apply>
        </DerivedField>
        <DerivedField name="tfidf@[message](hey)" optype="continuous" dataType="double">
            <Apply function="*">
                <Constant>4.9138191442136741</Constant>
                <TextIndex textField="lowercase(message)">
                    <Extension value="per"/>
                    <Constant>hey</Constant>
                </TextIndex>
            </Apply>
        </DerivedField>
        <DerivedField name="tfidf@[message](hi)" optype="continuous" dataType="double">
            <Apply function="*">
                <Constant>4.7873349971045549</Constant>
                <TextIndex textField="lowercase(message)">
                    <Extension value="start"/>
                    <Constant>hi</Constant>
                </TextIndex>
            </Apply>
        </DerivedField>
        <DerivedField name="tfidf@[message](holiday)" optype="continuous" dataType="double">
            <Apply function="*">
                <Constant>5.7915376013015898</Constant>
                <TextIndex textField="lowercase(message)">
                    <Extension value="keep"/>
                    <Constant>holiday</Constant>
                </TextIndex>
            </Apply>
        </DerivedField>
        <DerivedField name="tfidf@[message](home)" optype="continuous" dataType="double">
            <Apply function="*">
                <Constant>4.5272581907446625</Constant>
                <TextIndex textField="lowercase(message)">
                    <Extension value="cash"/>
                    <Constant>home</Constant>
                </TextIndex>
            </Apply>
        </DerivedField>
        <DerivedField name="tfidf@[message](hope)" optype="continuous" dataType="double">
            <Apply function="*">
                <Constant>4.9365473952912300</Constant>
                <TextIndex textField="lowercase(message)">
                    <Extension value="lar"/>
                    <Constant>hope</Constant>
                </TextIndex>
            </Apply>
        </DerivedField>
        <DerivedField name="tfidf@[message](hot)" optype="continuous" dataType="double">
            <Apply function="*">
                <Constant>6.2669612980166649</Constant>
                <TextIndex textField="lowercase(message)">
                    <Extension value="sleep"/>
                    <Constant>hot</Constant>
                </TextIndex>
            </Apply>
        </DerivedField>
        <DerivedField name="tfidf@[message](hour)" optype="continuous" dataType="double">
            <Apply function="*">
                <Constant>5.6182658800275531</Constant>
                <TextIndex textField="lowercase(message)">
                    <Extension value="early"/>
                    <Constant>hour</Constant>
                </TextIndex>
            </Apply>
        </DerivedField>
        <DerivedField name="tfidf@[message](house)" optype="continuous" dataType="double">
            <Apply function="*">
                <Constant>6.1066186479414855</Constant>
                <TextIndex textField="lowercase(message)">
                    <Extension value="ah"/>
                    <Constant>house</Constant>
                </TextIndex>
            </Apply>
        </DerivedField>
        <DerivedField name="tfidf@[message](hurt)" optype="continuous" dataType="double">
            <Apply function="*">
                <Constant>6.0702510037706103</Constant>
                <TextIndex textField="lowercase(message)">
                    <Extension value="guy"/>
                    <Constant>hurt</Constant>
                </TextIndex>
            </Apply>
        </DerivedField>
        <DerivedField name="tfidf@[message](ill)" optype="continuous" dataType="double">
            <Apply function="*">
                <Constant>5.7915376013015898</Constant>
                <TextIndex textField="lowercase(message)">
                    <Extension value="person"/>
                    <Constant>ill</Constant>
                </TextIndex>
            </Apply>
        </DerivedField>
        <DerivedField name="tfidf@[message](im)" optype="continuous" dataType="double">
            <Apply function="*">
                <Constant>5.2435724305861422</Constant>
                <TextIndex textField="lowercase(message)">
                    <Extension value="...."/>
                    <Constant>im</Constant>
                </TextIndex>
            </Apply>
        </DerivedField>
        <DerivedField name="tfidf@[message](important)" optype="continuous" dataType="double">
            <Apply function="*">
                <Constant>6.2669612980166649</Constant>
                <TextIndex textField="lowercase(message)">
                    <Extension value="class"/>
                    <Constant>important</Constant>
                </TextIndex>
            </Apply>
        </DerivedField>
        <DerivedField name="tfidf@[message](job)" optype="continuous" dataType="double">
            <Apply function="*">
                <Constant>5.8189365754897038</Constant>
                <TextIndex textField="lowercase(message)">
                    <Extension value="tomorrow"/>
                    <Constant>job</Constant>
                </TextIndex>
            </Apply>
        </DerivedField>
        <DerivedField name="tfidf@[message](join)" optype="continuous" dataType="double">
            <Apply function="*">
                <Constant>6.1835796890776136</Constant>
                <TextIndex textField="lowercase(message)">
                    <Extension value="trying"/>
                    <Constant>join</Constant>
                </TextIndex>
            </Apply>
        </DerivedField>
        <DerivedField name="tfidf@[message](jus)" optype="continuous" dataType="double">
            <Apply function="*">
                <Constant>6.0351596839593400</Constant>
                <TextIndex textField="lowercase(message)">
                    <Extension value="thing"/>
                    <Constant>jus</Constant>
                </TextIndex>
            </Apply>
        </DerivedField>
        <DerivedField name="tfidf@[message](juz)" optype="continuous" dataType="double">
            <Apply function="*">
                <Constant>6.3114130605874985</Constant>
                <TextIndex textField="lowercase(message)">
                    <Extension value="actually"/>
                    <Constant>juz</Constant>
                </TextIndex>
            </Apply>
        </DerivedField>
        <DerivedField name="tfidf@[message](k)" optype="continuous" dataType="double">
            <Apply function="*">
                <Constant>5.0586500920921305</Constant>
                <TextIndex textField="lowercase(message)">
                    <Extension value="*"/>
                    <Constant>k</Constant>
                </TextIndex>
            </Apply>
        </DerivedField>
        <DerivedField name="tfidf@[message](keep)" optype="continuous" dataType="double">
            <Apply function="*">
                <Constant>5.3249180700400949</Constant>
                <TextIndex textField="lowercase(message)">
                    <Extension value="nice"/>
                    <Constant>keep</Constant>
                </TextIndex>
            </Apply>
        </DerivedField>
        <DerivedField name="tfidf@[message](kiss)" optype="continuous" dataType="double">
            <Apply function="*">
                <Constant>6.1443589759243320</Constant>
                <TextIndex textField="lowercase(message)">
                    <Extension value="evening"/>
                    <Constant>kiss</Constant>
                </TextIndex>
            </Apply>
        </DerivedField>
        <DerivedField name="tfidf@[message](know)" optype="continuous" dataType="double">
            <Apply function="*">
                <Constant>4.0697367206804458</Constant>
                <TextIndex textField="lowercase(message)">
                    <Extension value="someone"/>
                    <Constant>know</Constant>
                </TextIndex>
            </Apply>
        </DerivedField>
        <DerivedField name="tfidf@[message](landline)" optype="continuous" dataType="double">
            <Apply function="*">
                <Constant>6.1443589759243320</Constant>
                <TextIndex textField="lowercase(message)">
                    <Extension value="service"/>
                    <Constant>landline</Constant>
                </TextIndex>
            </Apply>
        </DerivedField>
        <DerivedField name="tfidf@[message](lar)" optype="continuous" dataType="double">
            <Apply function="*">
                <Constant>5.9367196111460876</Constant>
                <TextIndex textField="lowercase(message)">
                    <Extension value="contact"/>
                    <Constant>lar</Constant>
                </TextIndex>
            </Apply>
        </DerivedField>
        <DerivedField name="tfidf@[message](last)" optype="continuous" dataType="double">
            <Apply function="*">
                <Constant>5.2753211289007229</Constant>
                <TextIndex textField="lowercase(message)">
                    <Extension value="150p"/>
                    <Constant>last</Constant>
                </TextIndex>
            </Apply>
        </DerivedField>
        <DerivedField name="tfidf@[message](late)" optype="continuous" dataType="double">
            <Apply function="*">
                <Constant>5.5738141174567195</Constant>
                <TextIndex textField="lowercase(message)">
                    <Extension value="hey"/>
                    <Constant>late</Constant>
                </TextIndex>
            </Apply>
        </DerivedField>
        <DerivedField name="tfidf@[message](later)" optype="continuous" dataType="double">
            <Apply function="*">
                <Constant>4.7019751481533980</Constant>
                <TextIndex textField="lowercase(message)">
                    <Extension value="name"/>
                    <Constant>later</Constant>
                </TextIndex>
            </Apply>
        </DerivedField>
        <DerivedField name="tfidf@[message](latest)" optype="continuous" dataType="double">
            <Apply function="*">
                <Constant>5.9367196111460876</Constant>
                <TextIndex textField="lowercase(message)">
                    <Extension value="book"/>
                    <Constant>latest</Constant>
                </TextIndex>
            </Apply>
        </DerivedField>
        <DerivedField name="tfidf@[message](leave)" optype="continuous" dataType="double">
            <Apply function="*">
                <Constant>5.6888834472415066</Constant>
                <TextIndex textField="lowercase(message)">
                    <Extension value="thk"/>
                    <Constant>leave</Constant>
                </TextIndex>
            </Apply>
        </DerivedField>
        <DerivedField name="tfidf@[message](left)" optype="continuous" dataType="double">
            <Apply function="*">
                <Constant>6.3579330762223911</Constant>
                <TextIndex textField="lowercase(message)">
                    <Extension value="dun"/>
                    <Constant>left</Constant>
                </TextIndex>
            </Apply>
        </DerivedField>
        <DerivedField name="tfidf@[message](leh)" optype="continuous" dataType="double">
            <Apply function="*">
                <Constant>6.1443589759243320</Constant>
                <TextIndex textField="lowercase(message)">
                    <Extension value="e"/>
                    <Constant>leh</Constant>
                </TextIndex>
            </Apply>
        </DerivedField>
        <DerivedField name="tfidf@[message](let)" optype="continuous" dataType="double">
            <Apply function="*">
                <Constant>5.1683490093485549</Constant>
                <TextIndex textField="lowercase(message)">
                    <Extension value="1"/>
                    <Constant>let</Constant>
                </TextIndex>
            </Apply>
        </DerivedField>
        <DerivedField name="tfidf@[message](liao)" optype="continuous" dataType="double">
            <Apply function="*">
                <Constant>6.1835796890776136</Constant>
                <TextIndex textField="lowercase(message)">
                    <Extension value="never"/>
                    <Constant>liao</Constant>
                </TextIndex>
            </Apply>
        </DerivedField>
        <DerivedField name="tfidf@[message](life)" optype="continuous" dataType="double">
            <Apply function="*">
                <Constant>5.3420125033993946</Constant>
                <TextIndex textField="lowercase(message)">
                    <Extension value="since"/>
                    <Constant>life</Constant>
                </TextIndex>
            </Apply>
        </DerivedField>
        <DerivedField name="tfidf@[message](like)" optype="continuous" dataType="double">
            <Apply function="*">
                <Constant>4.1607084988861720</Constant>
                <TextIndex textField="lowercase(message)">
                    <Extension value="like"/>
                    <Constant>like</Constant>
                </TextIndex>
            </Apply>
        </DerivedField>
        <DerivedField name="tfidf@[message](line)" optype="continuous" dataType="double">
            <Apply function="*">
                <Constant>5.7915376013015898</Constant>
                <TextIndex textField="lowercase(message)">
                    <Extension value="long"/>
                    <Constant>line</Constant>
                </TextIndex>
            </Apply>
        </DerivedField>
        <DerivedField name="tfidf@[message](little)" optype="continuous" dataType="double">
            <Apply function="*">
                <Constant>6.2244016835978684</Constant>
                <TextIndex textField="lowercase(message)">
                    <Extension value="ca"/>
                    <Constant>little</Constant>
                </TextIndex>
            </Apply>
        </DerivedField>
        <DerivedField name="tfidf@[message](live)" optype="continuous" dataType="double">
            <Apply function="*">
                <Constant>5.8760949893296530</Constant>
                <TextIndex textField="lowercase(message)">
                    <Extension value="stop"/>
                    <Constant>live</Constant>
                </TextIndex>
            </Apply>
        </DerivedField>
        <DerivedField name="tfidf@[message](lol)" optype="continuous" dataType="double">
            <Apply function="*">
                <Constant>5.3420125033993946</Constant>
                <TextIndex textField="lowercase(message)">
                    <Extension value="reply"/>
                    <Constant>lol</Constant>
                </TextIndex>
            </Apply>
        </DerivedField>
        <DerivedField name="tfidf@[message](long)" optype="continuous" dataType="double">
            <Apply function="*">
                <Constant>5.9059479524793339</Constant>
                <TextIndex textField="lowercase(message)">
                    <Extension value="quite"/>
                    <Constant>long</Constant>
                </TextIndex>
            </Apply>
        </DerivedField>
        <DerivedField name="tfidf@[message](look)" optype="continuous" dataType="double">
            <Apply function="*">
                <Constant>6.0012581322836587</Constant>
                <TextIndex textField="lowercase(message)">
                    <Extension value="next"/>
                    <Constant>look</Constant>
                </TextIndex>
            </Apply>
        </DerivedField>
        <DerivedField name="tfidf@[message](looking)" optype="continuous" dataType="double">
            <Apply function="*">
                <Constant>6.1835796890776136</Constant>
                <TextIndex textField="lowercase(message)">
                    <Extension value="true"/>
                    <Constant>looking</Constant>
                </TextIndex>
            </Apply>
        </DerivedField>
        <DerivedField name="tfidf@[message](lor)" optype="continuous" dataType="double">
            <Apply function="*">
                <Constant>4.6575233855825644</Constant>
                <TextIndex textField="lowercase(message)">
                    <Extension value="co"/>
                    <Constant>lor</Constant>
                </TextIndex>
            </Apply>
        </DerivedField>
        <DerivedField name="tfidf@[message](lot)" optype="continuous" dataType="double">
            <Apply function="*">
                <Constant>5.5738141174567195</Constant>
                <TextIndex textField="lowercase(message)">
                    <Extension value="wanted"/>
                    <Constant>lot</Constant>
                </TextIndex>
            </Apply>
        </DerivedField>
        <DerivedField name="tfidf@[message](love)" optype="continuous" dataType="double">
            <Apply function="*">
                <Constant>4.4188488922374773</Constant>
                <TextIndex textField="lowercase(message)">
                    <Extension value="didnt"/>
                    <Constant>love</Constant>
                </TextIndex>
            </Apply>
        </DerivedField>
        <DerivedField name="tfidf@[message](lt)" optype="continuous" dataType="double">
            <Apply function="*">
                <Constant>4.1607084988861720</Constant>
                <TextIndex textField="lowercase(message)">
                    <Extension value=""/>
                    <Constant>lt</Constant>
                </TextIndex>
            </Apply>
        </DerivedField>
        <DerivedField name="tfidf@[message](lunch)" optype="continuous" dataType="double">
            <Apply function="*">
                <Constant>5.9367196111460876</Constant>
                <TextIndex textField="lowercase(message)">
                    <Extension value="also"/>
                    <Constant>lunch</Constant>
                </TextIndex>
            </Apply>
        </DerivedField>
        <DerivedField name="tfidf@[message](luv)" optype="continuous" dataType="double">
            <Apply function="*">
                <Constant>6.1443589759243320</Constant>
                <TextIndex textField="lowercase(message)">
                    <Extension value="go"/>
                    <Constant>luv</Constant>
                </TextIndex>
            </Apply>
        </DerivedField>
        <DerivedField name="tfidf@[message](made)" optype="continuous" dataType="double">
            <Apply function="*">
                <Constant>6.1066186479414855</Constant>
                <TextIndex textField="lowercase(message)">
                    <Extension value="first"/>
                    <Constant>made</Constant>
                </TextIndex>
            </Apply>
        </DerivedField>
        <DerivedField name="tfidf@[message](make)" optype="continuous" dataType="double">
            <Apply function="*">
                <Constant>4.8485786223452738</Constant>
                <TextIndex textField="lowercase(message)">
                    <Extension value="join"/>
                    <Constant>make</Constant>
                </TextIndex>
            </Apply>
        </DerivedField>
        <DerivedField name="tfidf@[message](making)" optype="continuous" dataType="double">
            <Apply function="*">
                <Constant>6.3114130605874985</Constant>
                <TextIndex textField="lowercase(message)">
                    <Extension value="sir"/>
                    <Constant>making</Constant>
                </TextIndex>
            </Apply>
        </DerivedField>
        <DerivedField name="tfidf@[message](man)" optype="continuous" dataType="double">
            <Apply function="*">
                <Constant>5.7648693542194280</Constant>
                <TextIndex textField="lowercase(message)">
                    <Extension value="though"/>
                    <Constant>man</Constant>
                </TextIndex>
            </Apply>
        </DerivedField>
        <DerivedField name="tfidf@[message](many)" optype="continuous" dataType="double">
            <Apply function="*">
                <Constant>5.6888834472415066</Constant>
                <TextIndex textField="lowercase(message)">
                    <Extension value="many"/>
                    <Constant>many</Constant>
                </TextIndex>
            </Apply>
        </DerivedField>
        <DerivedField name="tfidf@[message](mate)" optype="continuous" dataType="double">
            <Apply function="*">
                <Constant>6.1443589759243320</Constant>
                <TextIndex textField="lowercase(message)">
                    <Extension value="sweet"/>
                    <Constant>mate</Constant>
                </TextIndex>
            </Apply>
        </DerivedField>
        <DerivedField name="tfidf@[message](may)" optype="continuous" dataType="double">
            <Apply function="*">
                <Constant>5.7648693542194280</Constant>
                <TextIndex textField="lowercase(message)">
                    <Extension value="talk"/>
                    <Constant>may</Constant>
                </TextIndex>
            </Apply>
        </DerivedField>
        <DerivedField name="tfidf@[message](mean)" optype="continuous" dataType="double">
            <Apply function="*">
                <Constant>5.8471074524564006</Constant>
                <TextIndex textField="lowercase(message)">
                    <Extension value="lol"/>
                    <Constant>mean</Constant>
                </TextIndex>
            </Apply>
        </DerivedField>
        <DerivedField name="tfidf@[message](meet)" optype="continuous" dataType="double">
            <Apply function="*">
                <Constant>5.3420125033993946</Constant>
                <TextIndex textField="lowercase(message)">
                    <Extension value="another"/>
                    <Constant>meet</Constant>
                </TextIndex>
            </Apply>
        </DerivedField>
        <DerivedField name="tfidf@[message](meeting)" optype="continuous" dataType="double">
            <Apply function="*">
                <Constant>5.7388938678161674</Constant>
                <TextIndex textField="lowercase(message)">
                    <Extension value="c"/>
                    <Constant>meeting</Constant>
                </TextIndex>
            </Apply>
        </DerivedField>
        <DerivedField name="tfidf@[message](message)" optype="continuous" dataType="double">
            <Apply function="*">
                <Constant>5.0330076614787931</Constant>
                <TextIndex textField="lowercase(message)">
                    <Extension value="please"/>
                    <Constant>message</Constant>
                </TextIndex>
            </Apply>
        </DerivedField>
        <DerivedField name="tfidf@[message](might)" optype="continuous" dataType="double">
            <Apply function="*">
                <Constant>6.1066186479414855</Constant>
                <TextIndex textField="lowercase(message)">
                    <Extension value="better"/>
                    <Constant>might</Constant>
                </TextIndex>
            </Apply>
        </DerivedField>
        <DerivedField name="tfidf@[message](min)" optype="continuous" dataType="double">
            <Apply function="*">
                <Constant>5.2280682440501769</Constant>
                <TextIndex textField="lowercase(message)">
                    <Extension value="play"/>
                    <Constant>min</Constant>
                </TextIndex>
            </Apply>
        </DerivedField>
        <DerivedField name="tfidf@[message](mind)" optype="continuous" dataType="double">
            <Apply function="*">
                <Constant>5.9059479524793339</Constant>
                <TextIndex textField="lowercase(message)">
                    <Extension value="'ll"/>
                    <Constant>mind</Constant>
                </TextIndex>
            </Apply>
        </DerivedField>
        <DerivedField name="tfidf@[message](minute)" optype="continuous" dataType="double">
            <Apply function="*">
                <Constant>5.6412553982522518</Constant>
                <TextIndex textField="lowercase(message)">
                    <Extension value="da"/>
                    <Constant>minute</Constant>
                </TextIndex>
            </Apply>
        </DerivedField>
        <DerivedField name="tfidf@[message](miss)" optype="continuous" dataType="double">
            <Apply function="*">
                <Constant>5.2435724305861422</Constant>
                <TextIndex textField="lowercase(message)">
                    <Extension value="came"/>
                    <Constant>miss</Constant>
                </TextIndex>
            </Apply>
        </DerivedField>
        <DerivedField name="tfidf@[message](mobile)" optype="continuous" dataType="double">
            <Apply function="*">
                <Constant>4.7972853279577228</Constant>
                <TextIndex textField="lowercase(message)">
                    <Extension value="nothing"/>
                    <Constant>mobile</Constant>
                </TextIndex>
            </Apply>
        </DerivedField>
        <DerivedField name="tfidf@[message](money)" optype="continuous" dataType="double">
            <Apply function="*">
                <Constant>5.6182658800275531</Constant>
                <TextIndex textField="lowercase(message)">
                    <Extension value="dis"/>
                    <Constant>money</Constant>
                </TextIndex>
            </Apply>
        </DerivedField>
        <DerivedField name="tfidf@[message](month)" optype="continuous" dataType="double">
            <Apply function="*">
                <Constant>5.8760949893296530</Constant>
                <TextIndex textField="lowercase(message)">
                    <Extension value="dat"/>
                    <Constant>month</Constant>
                </TextIndex>
            </Apply>
        </DerivedField>
        <DerivedField name="tfidf@[message](morning)" optype="continuous" dataType="double">
            <Apply function="*">
                <Constant>5.3081109517237133</Constant>
                <TextIndex textField="lowercase(message)">
                    <Extension value="mean"/>
                    <Constant>morning</Constant>
                </TextIndex>
            </Apply>
        </DerivedField>
        <DerivedField name="tfidf@[message](movie)" optype="continuous" dataType="double">
            <Apply function="*">
                <Constant>6.1835796890776136</Constant>
                <TextIndex textField="lowercase(message)">
                    <Extension value="havent"/>
                    <Constant>movie</Constant>
                </TextIndex>
            </Apply>
        </DerivedField>
        <DerivedField name="tfidf@[message](msg)" optype="continuous" dataType="double">
            <Apply function="*">
                <Constant>5.0586500920921305</Constant>
                <TextIndex textField="lowercase(message)">
                    <Extension value="message"/>
                    <Constant>msg</Constant>
                </TextIndex>
            </Apply>
        </DerivedField>
        <DerivedField name="tfidf@[message](much)" optype="continuous" dataType="double">
            <Apply function="*">
                <Constant>4.9598042574554970</Constant>
                <TextIndex textField="lowercase(message)">
                    <Extension value="guaranteed"/>
                    <Constant>much</Constant>
                </TextIndex>
            </Apply>
        </DerivedField>
        <DerivedField name="tfidf@[message](must)" optype="continuous" dataType="double">
            <Apply function="*">
                <Constant>6.3114130605874985</Constant>
                <TextIndex textField="lowercase(message)">
                    <Extension value="1000"/>
                    <Constant>must</Constant>
                </TextIndex>
            </Apply>
        </DerivedField>
        <DerivedField name="tfidf@[message](n)" optype="continuous" dataType="double">
            <Apply function="*">
                <Constant>4.7677265257161778</Constant>
                <TextIndex textField="lowercase(message)">
                    <Extension value="last"/>
                    <Constant>n</Constant>
                </TextIndex>
            </Apply>
        </DerivedField>
        <DerivedField name="tfidf@[message](n't)" optype="continuous" dataType="double">
            <Apply function="*">
                <Constant>3.9176585804551589</Constant>
                <TextIndex textField="lowercase(message)">
                    <Extension value="night"/>
                    <Constant>n't</Constant>
                </TextIndex>
            </Apply>
        </DerivedField>
        <DerivedField name="tfidf@[message](na)" optype="continuous" dataType="double">
            <Apply function="*">
                <Constant>5.0457466872562220</Constant>
                <TextIndex textField="lowercase(message)">
                    <Extension value="network"/>
                    <Constant>na</Constant>
                </TextIndex>
            </Apply>
        </DerivedField>
        <DerivedField name="tfidf@[message](name)" optype="continuous" dataType="double">
            <Apply function="*">
                <Constant>5.7135760598318779</Constant>
                <TextIndex textField="lowercase(message)">
                    <Extension value="selected"/>
                    <Constant>name</Constant>
                </TextIndex>
            </Apply>
        </DerivedField>
        <DerivedField name="tfidf@[message](need)" optype="continuous" dataType="double">
            <Apply function="*">
                <Constant>4.4752018287886095</Constant>
                <TextIndex textField="lowercase(message)">
                    <Extension value="receive"/>
                    <Constant>need</Constant>
                </TextIndex>
            </Apply>
        </DerivedField>
        <DerivedField name="tfidf@[message](network)" optype="continuous" dataType="double">
            <Apply function="*">
                <Constant>6.1835796890776136</Constant>
                <TextIndex textField="lowercase(message)">
                    <Extension value="hour"/>
                    <Constant>network</Constant>
                </TextIndex>
            </Apply>
        </DerivedField>
        <DerivedField name="tfidf@[message](never)" optype="continuous" dataType="double">
            <Apply function="*">
                <Constant>5.9059479524793339</Constant>
                <TextIndex textField="lowercase(message)">
                    <Extension value="sm"/>
                    <Constant>never</Constant>
                </TextIndex>
            </Apply>
        </DerivedField>
        <DerivedField name="tfidf@[message](new)" optype="continuous" dataType="double">
            <Apply function="*">
                <Constant>4.6929253126334807</Constant>
                <TextIndex textField="lowercase(message)">
                    <Extension value="pls"/>
                    <Constant>new</Constant>
                </TextIndex>
            </Apply>
        </DerivedField>
        <DerivedField name="tfidf@[message](next)" optype="continuous" dataType="double">
            <Apply function="*">
                <Constant>5.4904325085176682</Constant>
                <TextIndex textField="lowercase(message)">
                    <Extension value="yup"/>
                    <Constant>next</Constant>
                </TextIndex>
            </Apply>
        </DerivedField>
        <DerivedField name="tfidf@[message](nice)" optype="continuous" dataType="double">
            <Apply function="*">
                <Constant>5.5738141174567195</Constant>
                <TextIndex textField="lowercase(message)">
                    <Extension value="coming"/>
                    <Constant>nice</Constant>
                </TextIndex>
            </Apply>
        </DerivedField>
        <DerivedField name="tfidf@[message](night)" optype="continuous" dataType="double">
            <Apply function="*">
                <Constant>4.9481082176923064</Constant>
                <TextIndex textField="lowercase(message)">
                    <Extension value="finish"/>
                    <Constant>night</Constant>
                </TextIndex>
            </Apply>
        </DerivedField>
        <DerivedField name="tfidf@[message](nokia)" optype="continuous" dataType="double">
            <Apply function="*">
                <Constant>5.5738141174567195</Constant>
                <TextIndex textField="lowercase(message)">
                    <Extension value="haf"/>
                    <Constant>nokia</Constant>
                </TextIndex>
            </Apply>
        </DerivedField>
        <DerivedField name="tfidf@[message](nothing)" optype="continuous" dataType="double">
            <Apply function="*">
